digraph Tree {
node [shape=box, fontname="helvetica"] ;
edge [fontname="helvetica"] ;
0 [label="x[3] <= 0.8\ngini = 0.667\nsamples = 112\nvalue = [38, 37, 37]"] ;
1 [label="gini = 0.0\nsamples = 38\nvalue = [38, 0, 0]"] ;
0 -> 1 [labeldistance=2.5, labelangle=45, headlabel="True"] ;
2 [label="x[2] <= 4.75\ngini = 0.5\nsamples = 74\nvalue = [0, 37, 37]"] ;
0 -> 2 [labeldistance=2.5, labelangle=-45, headlabel="False"] ;
3 [label="x[3] <= 1.65\ngini = 0.057\nsamples = 34\nvalue = [0, 33, 1]"] ;
2 -> 3 ;
4 [label="gini = 0.0\nsamples = 33\nvalue = [0, 33, 0]"] ;
3 -> 4 ;
5 [label="gini = 0.0\nsamples = 1\nvalue = [0, 0, 1]"] ;
3 -> 5 ;
6 [label="x[2] <= 4.95\ngini = 0.18\nsamples = 40\nvalue = [0, 4, 36]"] ;
2 -> 6 ;
7 [label="x[3] <= 1.65\ngini = 0.5\nsamples = 6\nvalue = [0, 3, 3]"] ;
6 -> 7 ;
8 [label="gini = 0.0\nsamples = 2\nvalue = [0, 2, 0]"] ;
7 -> 8 ;
9 [label="x[1] <= 3.0\ngini = 0.375\nsamples = 4\nvalue = [0, 1, 3]"] ;
7 -> 9 ;
10 [label="gini = 0.0\nsamples = 3\nvalue = [0, 0, 3]"] ;
9 -> 10 ;
11 [label="gini = 0.0\nsamples = 1\nvalue = [0, 1, 0]"] ;
9 -> 11 ;
12 [label="x[3] <= 1.7\ngini = 0.057\nsamples = 34\nvalue = [0, 1, 33]"] ;
6 -> 12 ;
13 [label="x[3] <= 1.55\ngini = 0.32\nsamples = 5\nvalue = [0, 1, 4]"] ;
12 -> 13 ;
14 [label="gini = 0.0\nsamples = 3\nvalue = [0, 0, 3]"] ;
13 -> 14 ;
15 [label="x[1] <= 2.85\ngini = 0.5\nsamples = 2\nvalue = [0, 1, 1]"] ;
13 -> 15 ;
16 [label="gini = 0.0\nsamples = 1\nvalue = [0, 1, 0]"] ;
15 -> 16 ;
17 [label="gini = 0.0\nsamples = 1\nvalue = [0, 0, 1]"] ;
15 -> 17 ;
18 [label="gini = 0.0\nsamples = 29\nvalue = [0, 0, 29]"] ;
12 -> 18 ;
}